digraph Tree {
node [shape=box] ;
0 [label="FLAMMABLE <= 9.5092\ngini = 0.4997\nsamples = 119\nvalue = [61, 58]"] ;
1 [label="FLAMMABLE <= 0.7261\ngini = 0.4998\nsamples = 114\nvalue = [56, 58]"] ;
0 -> 1 [labeldistance=2.5, labelangle=45, headlabel="True"] ;
2 [label="FLAMMABLE <= 0.1012\ngini = 0.2188\nsamples = 8\nvalue = [7, 1]"] ;
1 -> 2 ;
3 [label="RADIOACTIVE <= 2.6698\ngini = 0.5\nsamples = 2\nvalue = [1, 1]"] ;
2 -> 3 ;
4 [label="gini = 0.0\nsamples = 1\nvalue = [0, 1]"] ;
3 -> 4 ;
5 [label="gini = 0.0\nsamples = 1\nvalue = [1, 0]"] ;
3 -> 5 ;
6 [label="gini = 0.0\nsamples = 6\nvalue = [6, 0]"] ;
2 -> 6 ;
7 [label="FLAMMABLE <= 0.9942\ngini = 0.4972\nsamples = 106\nvalue = [49, 57]"] ;
1 -> 7 ;
8 [label="gini = 0.0\nsamples = 5\nvalue = [0, 5]"] ;
7 -> 8 ;
9 [label="FOOD <= 1.1979\ngini = 0.4996\nsamples = 101\nvalue = [49, 52]"] ;
7 -> 9 ;
10 [label="FOOD <= 0.0409\ngini = 0.3367\nsamples = 14\nvalue = [3, 11]"] ;
9 -> 10 ;
11 [label="gini = 0.0\nsamples = 1\nvalue = [1, 0]"] ;
10 -> 11 ;
12 [label="FLAMMABLE <= 2.5041\ngini = 0.2604\nsamples = 13\nvalue = [2, 11]"] ;
10 -> 12 ;
13 [label="gini = 0.0\nsamples = 1\nvalue = [1, 0]"] ;
12 -> 13 ;
14 [label="EXPLOSIVE <= 3.0878\ngini = 0.1528\nsamples = 12\nvalue = [1, 11]"] ;
12 -> 14 ;
15 [label="EXPLOSIVE <= 2.6268\ngini = 0.4444\nsamples = 3\nvalue = [1, 2]"] ;
14 -> 15 ;
16 [label="gini = 0.0\nsamples = 2\nvalue = [0, 2]"] ;
15 -> 16 ;
17 [label="gini = 0.0\nsamples = 1\nvalue = [1, 0]"] ;
15 -> 17 ;
18 [label="gini = 0.0\nsamples = 9\nvalue = [0, 9]"] ;
14 -> 18 ;
19 [label="FOOD <= 7.7805\ngini = 0.4983\nsamples = 87\nvalue = [46, 41]"] ;
9 -> 19 ;
20 [label="EXPLOSIVE <= 0.7427\ngini = 0.4775\nsamples = 66\nvalue = [40, 26]"] ;
19 -> 20 ;
21 [label="gini = 0.0\nsamples = 4\nvalue = [0, 4]"] ;
20 -> 21 ;
22 [label="EXPLOSIVE <= 9.5004\ngini = 0.4579\nsamples = 62\nvalue = [40, 22]"] ;
20 -> 22 ;
23 [label="RADIOACTIVE <= 7.3967\ngini = 0.4444\nsamples = 60\nvalue = [40, 20]"] ;
22 -> 23 ;
24 [label="RADIOACTIVE <= 2.7923\ngini = 0.4783\nsamples = 48\nvalue = [29, 19]"] ;
23 -> 24 ;
25 [label="FLAMMABLE <= 8.9128\ngini = 0.3324\nsamples = 19\nvalue = [15, 4]"] ;
24 -> 25 ;
26 [label="FLAMMABLE <= 4.422\ngini = 0.2076\nsamples = 17\nvalue = [15, 2]"] ;
25 -> 26 ;
27 [label="MEDICAL <= 5.1921\ngini = 0.4444\nsamples = 6\nvalue = [4, 2]"] ;
26 -> 27 ;
28 [label="gini = 0.0\nsamples = 2\nvalue = [0, 2]"] ;
27 -> 28 ;
29 [label="gini = 0.0\nsamples = 4\nvalue = [4, 0]"] ;
27 -> 29 ;
30 [label="gini = 0.0\nsamples = 11\nvalue = [11, 0]"] ;
26 -> 30 ;
31 [label="gini = 0.0\nsamples = 2\nvalue = [0, 2]"] ;
25 -> 31 ;
32 [label="EXPLOSIVE <= 6.4645\ngini = 0.4994\nsamples = 29\nvalue = [14, 15]"] ;
24 -> 32 ;
33 [label="EXPLOSIVE <= 3.0377\ngini = 0.4764\nsamples = 23\nvalue = [9, 14]"] ;
32 -> 33 ;
34 [label="gini = 0.0\nsamples = 3\nvalue = [3, 0]"] ;
33 -> 34 ;
35 [label="EXPLOSIVE <= 5.4022\ngini = 0.42\nsamples = 20\nvalue = [6, 14]"] ;
33 -> 35 ;
36 [label="EXPLOSIVE <= 4.3589\ngini = 0.4898\nsamples = 14\nvalue = [6, 8]"] ;
35 -> 36 ;
37 [label="EXPLOSIVE <= 3.371\ngini = 0.2188\nsamples = 8\nvalue = [1, 7]"] ;
36 -> 37 ;
38 [label="MEDICAL <= 6.1007\ngini = 0.4444\nsamples = 3\nvalue = [1, 2]"] ;
37 -> 38 ;
39 [label="gini = 0.0\nsamples = 1\nvalue = [1, 0]"] ;
38 -> 39 ;
40 [label="gini = 0.0\nsamples = 2\nvalue = [0, 2]"] ;
38 -> 40 ;
41 [label="gini = 0.0\nsamples = 5\nvalue = [0, 5]"] ;
37 -> 41 ;
42 [label="MEDICAL <= 4.7533\ngini = 0.2778\nsamples = 6\nvalue = [5, 1]"] ;
36 -> 42 ;
43 [label="RADIOACTIVE <= 3.9315\ngini = 0.4444\nsamples = 3\nvalue = [2, 1]"] ;
42 -> 43 ;
44 [label="gini = 0.0\nsamples = 2\nvalue = [2, 0]"] ;
43 -> 44 ;
45 [label="gini = 0.0\nsamples = 1\nvalue = [0, 1]"] ;
43 -> 45 ;
46 [label="gini = 0.0\nsamples = 3\nvalue = [3, 0]"] ;
42 -> 46 ;
47 [label="gini = 0.0\nsamples = 6\nvalue = [0, 6]"] ;
35 -> 47 ;
48 [label="EXPLOSIVE <= 7.3411\ngini = 0.2778\nsamples = 6\nvalue = [5, 1]"] ;
32 -> 48 ;
49 [label="gini = 0.0\nsamples = 5\nvalue = [5, 0]"] ;
48 -> 49 ;
50 [label="gini = 0.0\nsamples = 1\nvalue = [0, 1]"] ;
48 -> 50 ;
51 [label="EXPLOSIVE <= 2.1311\ngini = 0.1528\nsamples = 12\nvalue = [11, 1]"] ;
23 -> 51 ;
52 [label="RADIOACTIVE <= 8.8995\ngini = 0.5\nsamples = 2\nvalue = [1, 1]"] ;
51 -> 52 ;
53 [label="gini = 0.0\nsamples = 1\nvalue = [0, 1]"] ;
52 -> 53 ;
54 [label="gini = 0.0\nsamples = 1\nvalue = [1, 0]"] ;
52 -> 54 ;
55 [label="gini = 0.0\nsamples = 10\nvalue = [10, 0]"] ;
51 -> 55 ;
56 [label="gini = 0.0\nsamples = 2\nvalue = [0, 2]"] ;
22 -> 56 ;
57 [label="RADIOACTIVE <= 6.0354\ngini = 0.4082\nsamples = 21\nvalue = [6, 15]"] ;
19 -> 57 ;
58 [label="EXPLOSIVE <= 2.784\ngini = 0.5\nsamples = 12\nvalue = [6, 6]"] ;
57 -> 58 ;
59 [label="gini = 0.0\nsamples = 3\nvalue = [0, 3]"] ;
58 -> 59 ;
60 [label="EXPLOSIVE <= 6.246\ngini = 0.4444\nsamples = 9\nvalue = [6, 3]"] ;
58 -> 60 ;
61 [label="gini = 0.0\nsamples = 3\nvalue = [3, 0]"] ;
60 -> 61 ;
62 [label="RADIOACTIVE <= 4.5536\ngini = 0.5\nsamples = 6\nvalue = [3, 3]"] ;
60 -> 62 ;
63 [label="FOOD <= 8.7159\ngini = 0.375\nsamples = 4\nvalue = [1, 3]"] ;
62 -> 63 ;
64 [label="gini = 0.0\nsamples = 1\nvalue = [1, 0]"] ;
63 -> 64 ;
65 [label="gini = 0.0\nsamples = 3\nvalue = [0, 3]"] ;
63 -> 65 ;
66 [label="gini = 0.0\nsamples = 2\nvalue = [2, 0]"] ;
62 -> 66 ;
67 [label="gini = 0.0\nsamples = 9\nvalue = [0, 9]"] ;
57 -> 67 ;
68 [label="gini = 0.0\nsamples = 5\nvalue = [5, 0]"] ;
0 -> 68 [labeldistance=2.5, labelangle=-45, headlabel="False"] ;
}